{
  "metadata": {
    "version": "0.2.0",
    "exported": "2025-07-01T19:39:01.475Z",
    "model": "attention",
    "format": "json"
  },
  "models": {
    "attention": {
      "layers": 11,
      "parameters": 889457,
      "weights": [
        0.16661591774501816,
        0.20641217586277438,
        -0.018078399270938794,
        0.25589955506915363,
        0.1941319757305251,
        -0.48322159588190905,
        -0.4411148154568463,
        -0.4958002519347948,
        -0.04206675513115554,
        0.3842894538698953,
        -0.13924064719840712,
        0.3833066653938817,
        0.09019329092629724,
        0.42518014923220004,
        0.23247465505343157,
        0.19894360271828027,
        0.49725758570050416,
        0.0737094727793095,
        -0.48511356936532213,
        -0.36999169720827374,
        -0.20430321562622478,
        -0.0467164372373583,
        -0.17299384807461182,
        -0.4020007556925882,
        -0.34328849485827684,
        -0.2953036998248548,
        0.11455541903578115,
        -0.3339329344627182,
        0.40660743405153243,
        0.006882937318140714,
        0.2417372261228461,
        0.2681434119667534,
        -0.4873454000442179,
        0.15023462564199996,
        0.33090131822463564,
        -0.06690751196734879,
        -0.43901768794239193,
        0.3501907255950307,
        0.4400779188473043,
        0.27854251035103306,
        -0.40396342452052614,
        -0.1311441055905973,
        -0.16174172592452818,
        -0.4708518909700721,
        0.19644116035402015,
        -0.2831265317601577,
        -0.24533524877002133,
        0.47928435170418626,
        -0.05548563120787997,
        0.07366527320515881,
        0.3623709975875218,
        -0.24305164076102836,
        0.1961845379454321,
        0.45426869751274235,
        0.04625902215105371,
        0.49957877419557994,
        -0.41242201517073007,
        -0.4835957373788713,
        -0.4155687057540247,
        0.08477646304113784,
        -0.35132638824579154,
        0.15199864904147176,
        0.13093900781007273,
        0.2341986923374313,
        -0.05320126932905267,
        -0.32907821129453096,
        -0.49506612453190635,
        -0.09265813102453047,
        0.21064625536390524,
        0.38614144895316627,
        -0.4555570649273133,
        0.13755420341478364,
        -0.1805163651594779,
        -0.28097882357757276,
        0.28654392087388025,
        0.059146820770271225,
        -0.09178374009535895,
        0.11782186923121851,
        -0.2701108695706136,
        -0.08635034547624443,
        -0.4251956641224197,
        -0.009228345294826301,
        -0.2738102267559024,
        -0.3381500927890193,
        -0.2704239886732409,
        0.4662562482828363,
        0.0736772265609873,
        -0.15361365807456262,
        -0.4058695051775325,
        0.4735201269151399,
        -0.10176723970909451,
        0.32637540217377103,
        0.39526859825089544,
        -0.4061417362062869,
        -0.3992421752837483,
        -0.20367249377837116,
        -0.32797116128971937,
        -0.24718115877745284,
        -0.39666253757823666,
        -0.4681405634997633
      ],
      "biases": [
        -0.12103349561157373,
        -0.03174494254262372,
        -0.08132845258950772,
        0.439830413279491,
        0.49386708710682137,
        -0.22729142981081374,
        0.29045730172422735,
        -0.20571782958536722,
        -0.26489845051646554,
        -0.23968181485995532,
        -0.007230400723171826,
        -0.014290421812854337,
        -0.3422872823747558,
        -0.3282207846910401,
        0.0654293983709402,
        0.25169473661127495,
        0.4010898724610632,
        -0.39653751405725246,
        -0.15292911043699897,
        0.20142280366684107,
        0.4992807007392559,
        0.2186533192746234,
        -0.17818425861362774,
        0.03879158778978642,
        0.21588747798649743,
        0.34065662772447536,
        0.1931497670328517,
        -0.08843147795985451,
        0.2656121383507368,
        -0.10699596338945705,
        0.49633769338003253,
        0.3410896420355005,
        -0.16577679020354608,
        -0.3422943751772587,
        -0.166838746236045,
        0.01696622057841357,
        -0.25482941424891115,
        0.19991291022183666,
        0.34230665597567356,
        -0.08109032376968073,
        -0.2764821622314746,
        0.13485109084363933,
        -0.45959370494948204,
        0.34746425607356657,
        -0.4365032003656699,
        0.31195915091452653,
        0.286295663025373,
        0.09995169891100186,
        -0.09794041971046008,
        0.40402818847556965
      ],
      "performance": {
        "accuracy": "94.31",
        "loss": "0.0197"
      }
    }
  }
}