{
  "metadata": {
    "version": "0.2.0",
    "exported": "2025-07-01T19:39:13.029Z",
    "model": "feedforward",
    "format": "json"
  },
  "models": {
    "feedforward": {
      "layers": 8,
      "parameters": 685381,
      "weights": [
        -0.3760456904530154,
        0.3477980286878011,
        0.07062999375670631,
        0.3670678841400028,
        0.1420786286244291,
        0.2958711022972933,
        0.3481328147435796,
        -0.19212897287498398,
        -0.1202420038316363,
        0.24412674531131695,
        0.02432124011332304,
        -0.4590105776575659,
        0.05618631939773122,
        -0.2823284027883577,
        0.29702776196284764,
        -0.46618831759260004,
        -0.31867493187234763,
        0.37143730830962807,
        -0.07649795846546992,
        -0.385633506704123,
        0.33065744002023023,
        -0.0469920960697463,
        0.4977446013104385,
        -0.3686738400525449,
        -0.11258640984441204,
        0.4968474793756321,
        -0.45981447848820456,
        0.24921694896358182,
        0.33852760641607604,
        0.0991038010615255,
        0.26657170606142633,
        -0.08759198107252009,
        0.45792321515860834,
        -0.3313887456830298,
        0.45325066619304644,
        -0.40426793338760736,
        0.0036185292493318144,
        -0.09419822713594272,
        0.011488723567058212,
        -0.33304514750571457,
        0.40418163650116323,
        0.24859111867808692,
        0.06354496284541011,
        0.29837595090358615,
        -0.40596326989769005,
        -0.33287608683101744,
        -0.19110888345847665,
        -0.005631672529462284,
        0.39283559706626425,
        -0.13848712734325996,
        0.11396636310472585,
        0.1124853330753377,
        -0.48231565701685386,
        0.06777346557094077,
        -0.07327545020422743,
        0.01059323494343678,
        -0.007658413841427736,
        -0.2556730796633382,
        0.4892939020725291,
        0.20978861603860666,
        0.39751478154592657,
        0.3576765711907983,
        0.06395542553741729,
        0.3986789903218,
        -0.19935402523029877,
        -0.45857767742924826,
        -0.07426295682537676,
        0.24032769905457152,
        -0.14230924336345385,
        0.36766901241298755,
        0.31301168617184216,
        -0.4501128182829892,
        0.17768328711128034,
        -0.46346191648068746,
        -0.19757867916450467,
        -0.2809708732463858,
        -0.384621094474914,
        -0.3159966419880722,
        -0.06094309549791177,
        0.39487048723597873,
        -0.3114953463924748,
        0.49904157714393294,
        0.3685726010485748,
        0.11665996735709383,
        0.12946353975541647,
        -0.014086216402245055,
        -0.19440131472307454,
        -0.34291766844038807,
        -0.2229480590287356,
        0.1521734931421619,
        0.0010951014110331947,
        0.026553943984690465,
        -0.4375766471766771,
        -0.16166187838132062,
        0.36316281818966445,
        0.0033326199032019943,
        -0.05604896809974891,
        -0.48366475602531267,
        0.35789271355074104,
        -0.12784558489923126
      ],
      "biases": [
        -0.0748298279706181,
        -0.35113130996220465,
        0.14630102353191377,
        -0.11673964492614419,
        0.2351575472230909,
        0.17461758228775826,
        -0.3193760818146387,
        -0.08340276397804303,
        -0.3657760141506885,
        -0.08123133899274282,
        -0.48347898697385916,
        0.4180454630621022,
        -0.49955833743438016,
        0.3284277017416253,
        -0.24164967696479267,
        0.3364212811849743,
        0.31941142956238644,
        -0.11516888189533536,
        0.35447948146573904,
        -0.14296997926898358,
        0.39554862892617226,
        0.09384180891111105,
        0.22460028726335346,
        0.346876022270739,
        0.4992739699735129,
        -0.07672163318899616,
        0.4957371367810124,
        0.0005275299438975978,
        0.12678848148648214,
        0.27911673818657357,
        -0.4233551674409941,
        0.3461399136395278,
        0.02506939201118885,
        0.2544265537660868,
        -0.01896795797050088,
        -0.27170735575818594,
        0.09887109329102661,
        -0.1405463222262644,
        -0.4511299385769163,
        0.3157770039132626,
        -0.3358880326428606,
        -0.1972487311202764,
        0.2081960229229547,
        0.46333695124566954,
        0.2536156788660364,
        0.32405136736026807,
        -0.32813558266441945,
        -0.43980706185726004,
        -0.14032835116653697,
        -0.40516194177898424
      ],
      "performance": {
        "accuracy": "89.01",
        "loss": "0.0231"
      }
    }
  }
}