{
  "metadata": {
    "version": "0.2.0",
    "exported": "2025-07-01T19:38:55.629Z",
    "model": "lstm",
    "format": "json"
  },
  "models": {
    "lstm": {
      "layers": 11,
      "parameters": 1014412,
      "weights": [
        0.26299151880571614,
        0.2810509124383054,
        0.28186950671262156,
        0.28426584933146204,
        0.35837684354130683,
        -0.41896974678570786,
        -0.42011822971888413,
        0.2185592312566249,
        0.487745329441051,
        0.4008359525807146,
        -0.16144736999808362,
        -0.13019562577134947,
        -0.4395499194621284,
        0.27651781919689755,
        -0.1668656333488845,
        0.4904115712456665,
        -0.3469234034646105,
        0.2708829789833136,
        -0.29013635599131127,
        0.3584655724209236,
        0.31467571805677985,
        -0.04439121489085629,
        -0.21819568610168494,
        -0.11776740971352395,
        0.3059732800647501,
        -0.49552456351983776,
        -0.3927941527204091,
        -0.39326465081906403,
        0.3917304148974696,
        0.2585399435859017,
        0.2328998586028599,
        0.20820961007480432,
        -0.01577634124901528,
        -0.42003967111840623,
        0.13605878378958636,
        0.10968722902331507,
        -0.45528099420628454,
        -0.42183238109963006,
        0.37696063515623135,
        0.2091548745700038,
        -0.2318187869732502,
        0.2314638245987104,
        0.2787310149217681,
        -0.17366740872709485,
        0.13676657892036004,
        -0.3111647661456527,
        -0.18675127467216313,
        -0.1067026831269533,
        -0.34456240230625235,
        0.27034122045885023,
        0.12933555426483334,
        -0.13270971449724023,
        -0.3063801757308444,
        -0.34839662474245814,
        0.41512620314430615,
        -0.4713030104430338,
        0.3226863441650394,
        0.33978760393623886,
        -0.32325480443081633,
        0.1677838941993819,
        -0.31911174510198914,
        -0.03982997618616757,
        -0.46792754007142534,
        -0.11326889440678345,
        -0.4080918446664539,
        0.47359139366556424,
        -0.28306784052499845,
        0.269543176380892,
        -0.023962790455700045,
        -0.48243812069283365,
        0.34411092368263474,
        -0.13386803780311696,
        0.21048917635864162,
        -0.38391209117282776,
        -0.11574843058148909,
        -0.12181006408251238,
        0.4152359854263574,
        0.034990311790441764,
        0.09666180332559793,
        -0.15892859962412254,
        0.2957993766017535,
        -0.25083605799490627,
        0.22119489908976586,
        0.0723743540846471,
        0.024972042191840016,
        0.16689035219843862,
        -0.1063298843323186,
        0.16265540191201922,
        0.15561478338054302,
        -0.1862551727608257,
        -0.07559149193962944,
        0.0938647561416035,
        0.10327499304876264,
        0.44059097149363,
        0.19126473101670105,
        0.3175477466843919,
        -0.01910208415865866,
        -0.020338557373765553,
        -0.4840427610271163,
        0.068240873353411
      ],
      "biases": [
        -0.020873673366263334,
        -0.23033038580369225,
        0.42720136930457553,
        0.275769046879931,
        0.24496419235982714,
        -0.3866436010395873,
        0.3449327330977694,
        0.23465281415559747,
        0.32052978422457135,
        0.3826990797618899,
        0.10452445280072364,
        -0.3104586248528465,
        0.28550832127906856,
        -0.0038410990548269908,
        0.45529189827549277,
        -0.11367870427794724,
        -0.2686020520789105,
        -0.2639988187226505,
        -0.20100232406292218,
        -0.23814616170161895,
        -0.07280213997165763,
        -0.29949008067974847,
        0.046300630001925525,
        0.004849818395651795,
        0.17404003740088392,
        -0.19010110064542807,
        0.4681672959084848,
        -0.2946523317106664,
        0.057863748443514496,
        0.0942952793018601,
        0.06227536174055137,
        -0.42581486460542317,
        0.3210519921207373,
        0.2957674318362309,
        -0.23818011837703934,
        0.02414894784884991,
        -0.09434227508372328,
        -0.2295442052210821,
        0.28862415767603067,
        0.3156171273801396,
        0.1509558854341626,
        0.047286627092952616,
        -0.12257679825204537,
        0.4144972593498948,
        0.3770344751094483,
        -0.37250230730091993,
        0.05194345741379891,
        0.21863163732622692,
        -0.49020168547908116,
        -0.041516929796859836
      ],
      "performance": {
        "accuracy": "87.34",
        "loss": "0.0474"
      }
    }
  }
}