{
  "metadata": {
    "version": "0.2.0",
    "exported": "2025-07-01T19:39:07.373Z",
    "model": "transformer",
    "format": "json"
  },
  "models": {
    "transformer": {
      "layers": 9,
      "parameters": 700234,
      "weights": [
        -0.21256083682314997,
        0.04449026071000106,
        -0.1263603431569733,
        -0.32468378909743456,
        0.2888812696100591,
        0.21607009427264212,
        -0.23388180392034852,
        -0.12752942174428394,
        -0.09436220085350677,
        -0.3587981329036882,
        0.39084954931735516,
        0.005148441287828431,
        0.29048307939038476,
        -0.4942450176650015,
        -0.4480028420585156,
        0.3958351506807021,
        -0.3700624958851366,
        -0.22948974308623882,
        0.47590227324546475,
        0.46421912790513065,
        0.34359572500090696,
        -0.14201849953986256,
        0.26884475746564296,
        0.34044638663294413,
        0.11678296982615288,
        -0.04158136267362034,
        0.2293197298628762,
        0.1798431137068217,
        -0.06117506096712444,
        0.03952840913917699,
        0.11850683582877974,
        -0.26522896796632134,
        0.49745313687666504,
        -0.3214687188360965,
        0.32128858604618027,
        0.07490246587156646,
        -0.16848205504849756,
        -0.45173981242949046,
        -0.4834949538397151,
        -0.03000349542185199,
        -0.04008030433500398,
        -0.4209535001707667,
        0.2677019410930772,
        -0.3901740551634949,
        -0.4552123752022281,
        -0.42601954675985,
        0.1766674168126059,
        0.11652936140115533,
        0.20419973351950516,
        -0.09969659898901861,
        0.08216408230687544,
        -0.13074258810022732,
        -0.08070211073131439,
        -0.34720324594474916,
        -0.2672336735483922,
        0.42889546662487543,
        0.13191693631166101,
        0.33719666039537843,
        0.4777366583494087,
        -0.17429727339344314,
        -0.4140593115338185,
        -0.22949326021130512,
        0.384037012759072,
        0.19961164063007075,
        -0.25419611500427575,
        0.33976404138638117,
        0.3690972581582217,
        0.06639487690821677,
        0.2045303559249858,
        0.44375775252650174,
        0.2798236023602776,
        0.05547341333843958,
        -0.17689381765701273,
        -0.4550067377270699,
        -0.10474583687579675,
        0.09179424952192083,
        -0.24166015514806904,
        0.3511543333160474,
        0.1278487720941317,
        -0.16785214266489357,
        -0.24853542918100735,
        -0.4292304481975755,
        -0.3189011234238086,
        0.11312611433869502,
        -0.23533035004117298,
        -0.4559412205349638,
        -0.38570972263544956,
        0.361591314235707,
        -0.1638172158210638,
        -0.4280772689218193,
        0.4310310679170146,
        -0.48500144486202346,
        -0.3500870708699326,
        -0.41963074302970793,
        0.04849633509364493,
        0.14426389154575658,
        0.09551843300830876,
        -0.08544870152120265,
        -0.42022074467970194,
        0.44699425070286725
      ],
      "biases": [
        -0.11923569092339736,
        -0.02373672510321745,
        0.29726348284179327,
        0.1532368747571451,
        0.24045656187314246,
        0.18104406675579954,
        -0.10493714038472102,
        0.0042207587662850266,
        0.434868102612628,
        0.34639438563751623,
        0.13342721287082493,
        -0.2309835858841658,
        -0.40172767645316476,
        0.12197467815628449,
        0.1863008931410164,
        0.11344619724336891,
        -0.15889818691028723,
        0.1956360900329368,
        -0.457269795371009,
        0.16374088128186393,
        -0.46870640893715865,
        0.18287266009583614,
        -0.1580084630423364,
        0.10605459030631081,
        0.1404387277307928,
        0.19207686651180667,
        -0.13810715259175055,
        0.14531186627718085,
        -0.2350873079721547,
        -0.18556896289277414,
        -0.33055958486574144,
        -0.42932445880245296,
        0.4415238836956059,
        0.45427108898561275,
        -0.13633711993013575,
        -0.2675880705117848,
        0.2939350220135277,
        -0.4533054848646316,
        -0.01583400591091988,
        -0.10969947840770033,
        -0.12899705446953802,
        0.40815267964376,
        -0.09845294789340664,
        0.05293107183362111,
        -0.35911979556861895,
        -0.37574843022780025,
        -0.37588761555614303,
        0.2236164478632241,
        0.4490073118528155,
        -0.13300060189931062
      ],
      "performance": {
        "accuracy": "94.27",
        "loss": "0.0541"
      }
    }
  }
}